# Input file: /home/work/kenlm/kenlm/data/character_corpus
# Token count: 140
# Smoothing: Modified Kneser-Ney
\data\
ngram 1=29
ngram 2=32
ngram 3=28
ngram 4=23

\1-grams:
-1.7619762	<unk>	0
0	<s>	-0.5228787
-1.0203419	</s>	0
-1.482486	换	-0.30103
-1.482486	一	-0.30103
-1.482486	首	-0.30103
-1.482486	好	-0.30103
-1.482486	听	-0.30103
-1.482486	的	-0.30103
-1.482486	流	-0.30103
-1.482486	行	-0.30103
-1.482486	歌	-0.30103
-1.482486	曲	-0.30103
-1.482486	现	-0.30103
-1.482486	在	-0.30103
-1.482486	是	-0.30103
-1.482486	北	-0.30103
-1.482486	京	-0.30103
-1.482486	时	-0.30103
-1.482486	间	-0.30103
-1.482486	晚	-0.30103
-1.482486	上	-0.30103
-1.482486	几	-0.30103
-1.1926402	点	-0.30103
-1.482486	啦	-0.30103
-1.482486	绩	-0.30103
-1.482486	机	-0.30103
-1.482486	电	-0.30103
-1.482486	极	-0.30103

\2-grams:
-0.26144773	曲 </s>	0
-0.41902328	点 </s>	0
-0.26144773	啦 </s>	0
-0.26144773	电 </s>	0
-0.8242643	<s> 换	-0.5228787
-0.28696162	换 一	-0.30103
-0.28696162	一 首	-0.30103
-0.28696162	首 好	-0.30103
-0.28696162	好 听	-0.30103
-0.28696162	听 的	-0.30103
-0.28696162	的 流	-0.30103
-0.28696162	流 行	-0.30103
-0.28696162	行 歌	-0.30103
-0.28696162	歌 曲	-0.30103
-0.8242643	<s> 现	-0.5228787
-0.28696162	现 在	-0.30103
-0.28696162	在 是	-0.30103
-0.28696162	是 北	-0.30103
-0.28696162	北 京	-0.30103
-0.28696162	京 时	-0.30103
-0.28696162	时 间	-0.30103
-0.28696162	间 晚	-0.30103
-0.28696162	晚 上	-0.30103
-0.28696162	上 几	-0.30103
-0.27401733	几 点	-0.30103
-0.27401733	绩 点	-0.30103
-0.27401733	极 点	-0.30103
-0.73724353	点 啦	-0.30103
-0.8242643	<s> 绩	-0.5228787
-0.8242643	<s> 机	-0.5228787
-0.28696162	机 电	-0.30103
-0.8242643	<s> 极	-0.5228787

\3-grams:
-0.11133982	歌 曲 </s>	0
-0.16082206	绩 点 </s>	0
-0.16082206	极 点 </s>	0
-0.11133982	点 啦 </s>	0
-0.11133982	机 电 </s>	0
-0.06806506	<s> 换 一	-0.5228787
-0.12019844	换 一 首	-0.5228787
-0.12019844	一 首 好	-0.5228787
-0.12019844	首 好 听	-0.5228787
-0.12019844	好 听 的	-0.5228787
-0.12019844	听 的 流	-0.5228787
-0.12019844	的 流 行	-0.5228787
-0.12019844	流 行 歌	-0.5228787
-0.12019844	行 歌 曲	-0.5228787
-0.06806506	<s> 现 在	-0.5228787
-0.12019844	现 在 是	-0.5228787
-0.12019844	在 是 北	-0.5228787
-0.12019844	是 北 京	-0.5228787
-0.12019844	北 京 时	-0.5228787
-0.12019844	京 时 间	-0.5228787
-0.12019844	时 间 晚	-0.5228787
-0.12019844	间 晚 上	-0.5228787
-0.12019844	晚 上 几	-0.5228787
-0.11574655	上 几 点	-0.5228787
-0.065690406	<s> 绩 点	-0.5228787
-0.065690406	<s> 极 点	-0.5228787
-0.227998	几 点 啦	-0.5228787
-0.06806506	<s> 机 电	-0.5228787

\4-grams:
-0.030511027	行 歌 曲 </s>
-0.04231763	<s> 绩 点 </s>
-0.04231763	<s> 极 点 </s>
-0.030511027	几 点 啦 </s>
-0.030511027	<s> 机 电 </s>
-0.03270045	<s> 换 一 首
-0.03270045	换 一 首 好
-0.03270045	一 首 好 听
-0.03270045	首 好 听 的
-0.03270045	好 听 的 流
-0.03270045	听 的 流 行
-0.03270045	的 流 行 歌
-0.03270045	流 行 歌 曲
-0.03270045	<s> 现 在 是
-0.03270045	现 在 是 北
-0.03270045	在 是 北 京
-0.03270045	是 北 京 时
-0.03270045	北 京 时 间
-0.03270045	京 时 间 晚
-0.03270045	时 间 晚 上
-0.03270045	间 晚 上 几
-0.031604372	晚 上 几 点
-0.05676807	上 几 点 啦

\end\
