# Input file: /home/work/kenlm/kenlm/data/segmented_corpus
# Token count: 60
# Smoothing: Modified Kneser-Ney
\data\
ngram 1=15
ngram 2=17
ngram 3=12
ngram 4=7

\1-grams:
-1.5015156	<unk>	0
0	<s>	-0.5228787
-0.6245285	</s>	0
-1.2152089	换	-0.30103
-1.2152089	一首	-0.30103
-1.2152089	好听的	-0.30103
-1.2152089	流行歌曲	-0.30103
-1.2152089	现在	-0.30103
-1.2152089	是	-0.30103
-1.2152089	北京时间	-0.30103
-1.2152089	晚上	-0.30103
-1.2152089	几点啦	-0.30103
-1.2152089	绩点	-0.30103
-1.2152089	机电	-0.30103
-1.2152089	极点	-0.30103

\2-grams:
-0.20852166	流行歌曲 </s>	0
-0.20852166	几点啦 </s>	0
-0.20852166	绩点 </s>	0
-0.20852166	机电 </s>	0
-0.20852166	极点 </s>	0
-0.80058134	<s> 换	-0.5228787
-0.27534556	换 一首	-0.30103
-0.27534556	一首 好听的	-0.30103
-0.27534556	好听的 流行歌曲	-0.30103
-0.80058134	<s> 现在	-0.5228787
-0.27534556	现在 是	-0.30103
-0.27534556	是 北京时间	-0.30103
-0.27534556	北京时间 晚上	-0.30103
-0.27534556	晚上 几点啦	-0.30103
-0.80058134	<s> 绩点	-0.5228787
-0.80058134	<s> 机电	-0.5228787
-0.80058134	<s> 极点	-0.5228787

\3-grams:
-0.091864325	好听的 流行歌曲 </s>	0
-0.091864325	晚上 几点啦 </s>	0
-0.052757848	<s> 绩点 </s>	0
-0.052757848	<s> 机电 </s>	0
-0.052757848	<s> 极点 </s>	0
-0.06593674	<s> 换 一首	-0.5228787
-0.11620737	换 一首 好听的	-0.5228787
-0.11620737	一首 好听的 流行歌曲	-0.5228787
-0.06593674	<s> 现在 是	-0.5228787
-0.11620737	现在 是 北京时间	-0.5228787
-0.11620737	是 北京时间 晚上	-0.5228787
-0.11620737	北京时间 晚上 几点啦	-0.5228787

\4-grams:
-0.025578318	一首 好听的 流行歌曲 </s>
-0.025578318	北京时间 晚上 几点啦 </s>
-0.0317182	<s> 换 一首 好听的
-0.0317182	换 一首 好听的 流行歌曲
-0.0317182	<s> 现在 是 北京时间
-0.0317182	现在 是 北京时间 晚上
-0.0317182	是 北京时间 晚上 几点啦

\end\
